<?xml version="1.0"?>
<opencv_storage>
<cascade>
  <stageType>BOOST</stageType>
  <featureType>HAAR</featureType>
  <height>24</height>
  <width>32</width>
  <stageParams>
    <boostType>GAB</boostType>
    <minHitRate>9.9500000476837158e-01</minHitRate>
    <maxFalseAlarm>5.0000000000000000e-01</maxFalseAlarm>
    <weightTrimRate>9.4999998807907104e-01</weightTrimRate>
    <maxDepth>1</maxDepth>
    <maxWeakCount>100</maxWeakCount></stageParams>
  <featureParams>
    <maxCatCount>0</maxCatCount>
    <featSize>1</featSize>
    <mode>BASIC</mode></featureParams>
  <stageNum>20</stageNum>
  <stages>
    <!-- stage 0 -->
    <_>
      <maxWeakCount>5</maxWeakCount>
      <stageThreshold>-1.4805953502655029e+00</stageThreshold>
      <weakClassifiers>
        <_>
          <internalNodes>
            0 -1 1 1.6412734985351563e-02</internalNodes>
          <leafValues>
            -7.9695433378219604e-01 7.3426574468612671e-01</leafValues></_>
        <_>
          <internalNodes>
            0 -1 94 -8.0898739397525787e-03</internalNodes>
          <leafValues>
            4.8261150717735291e-01 -6.7282217741012573e-01</leafValues></_>
        <_>
          <internalNodes>
            0 -1 38 -1.5634559094905853e-02</internalNodes>
          <leafValues>
            8.3662253618240356e-01 -4.2268508672714233e-01</leafValues></_>
        <_>
          <internalNodes>
            0 -1 18 7.2211064398288727e-03</internalNodes>
          <leafValues>
            -3.4643995761871338e-01 8.5120320320129395e-01</leafValues></_>
        <_>
          <internalNodes>
            0 -1 116 1.6900748014450073e-02</internalNodes>
          <leafValues>
            -3.0678513646125793e-01 7.5830620527267456e-01</leafValues></_></weakClassifiers></_>
    <!-- stage 1 -->
    <_>
      <maxWeakCount>5</maxWeakCount>
      <stageThreshold>-1.4032652378082275e+00</stageThreshold>
      <weakClassifiers>
        <_>
          <internalNodes>
            0 -1 13 -2.7991194278001785e-02</internalNodes>
          <leafValues>
            4.5911949872970581e-01 -7.6347827911376953e-01</leafValues></_>
        <_>
          <internalNodes>
            0 -1 145 2.4944348260760307e-02</internalNodes>
          <leafValues>
            -4.7726598381996155e-01 6.4173769950866699e-01</leafValues></_>
        <_>
          <internalNodes>
            0 -1 29 5.2289646118879318e-03</internalNodes>
          <leafValues>
            -4.4809380173683167e-01 4.8543947935104370e-01</leafValues></_>
        <_>
          <internalNodes>
            0 -1 34 1.9013982266187668e-02</internalNodes>
          <leafValues>
            -3.8863599300384521e-01 6.3127422332763672e-01</leafValues></_>
        <_>
          <internalNodes>
            0 -1 179 -1.4391489326953888e-02</internalNodes>
          <leafValues>
            7.8558361530303955e-01 -2.5932443141937256e-01</leafValues></_></weakClassifiers></_>
    <!-- stage 2 -->
    <_>
      <maxWeakCount>7</maxWeakCount>
      <stageThreshold>-1.5765072107315063e+00</stageThreshold>
      <weakClassifiers>
        <_>
          <internalNodes>
            0 -1 69 5.2387580275535583e-02</internalNodes>
          <leafValues>
            -7.3630136251449585e-01 4.2666667699813843e-01</leafValues></_>
        <_>
          <internalNodes>
            0 -1 150 -2.3554790765047073e-02</internalNodes>
          <leafValues>
            4.0815985202789307e-01 -6.3478022813796997e-01</leafValues></_>
        <_>
          <internalNodes>
            0 -1 104 3.3819386735558510e-03</internalNodes>
          <leafValues>
            -3.4305745363235474e-01 6.4700460433959961e-01</leafValues></_>
        <_>
          <internalNodes>
            0 -1 151 2.3334357887506485e-02</internalNodes>
          <leafValues>
            -3.2948720455169678e-01 5.6322222948074341e-01</leafValues></_>
        <_>
          <internalNodes>
            0 -1 19 1.7882198095321655e-02</internalNodes>
          <leafValues>
            -3.5465937852859497e-01 5.5184417963027954e-01</leafValues></_>
        <_>
          <internalNodes>
            0 -1 173 2.5670123286545277e-03</internalNodes>
          <leafValues>
            -3.5271432995796204e-01 5.6105518341064453e-01</leafValues></_>
        <_>
          <internalNodes>
            0 -1 107 5.8723706752061844e-04</internalNodes>
          <leafValues>
            2.8178337216377258e-01 -8.7711691856384277e-01</leafValues></_></weakClassifiers></_>
    <!-- stage 3 -->
    <_>
      <maxWeakCount>9</maxWeakCount>
      <stageThreshold>-1.6178611516952515e+00</stageThreshold>
      <weakClassifiers>
        <_>
          <internalNodes>
            0 -1 97 5.4378211498260498e-02</internalNodes>
          <leafValues>
            -7.2366148233413696e-01 3.4193548560142517e-01</leafValues></_>
        <_>
          <internalNodes>
            0 -1 117 -4.9875151365995407e-02</internalNodes>
          <leafValues>
            3.8269892334938049e-01 -5.1717203855514526e-01</leafValues></_>
        <_>
          <internalNodes>
            0 -1 28 -3.3825561404228210e-03</internalNodes>
          <leafValues>
            4.0595594048500061e-01 -4.5430025458335876e-01</leafValues></_>
        <_>
          <internalNodes>
            0 -1 174 -2.8155140578746796e-02</internalNodes>
          <leafValues>
            5.8515912294387817e-01 -3.8534566760063171e-01</leafValues></_>
        <_>
          <internalNodes>
            0 -1 26 -7.3301754891872406e-03</internalNodes>
          <leafValues>
            7.3985695838928223e-01 -2.5183093547821045e-01</leafValues></_>
        <_>
          <internalNodes>
            0 -1 127 -2.9332749545574188e-03</internalNodes>
          <leafValues>
            7.1768683195114136e-01 -2.2373992204666138e-01</leafValues></_>
        <_>
          <internalNodes>
            0 -1 156 7.0758932270109653e-04</internalNodes>
          <leafValues>
            2.1628943085670471e-01 -8.2613545656204224e-01</leafValues></_>
        <_>
          <internalNodes>
            0 -1 100 3.3195209689438343e-03</internalNodes>
          <leafValues>
            -3.3186382055282593e-01 5.3111648559570313e-01</leafValues></_>
        <_>
          <internalNodes>
            0 -1 96 1.6795883420854807e-03</internalNodes>
          <leafValues>
            1.9350743293762207e-01 -9.5183104276657104e-01</leafValues></_></weakClassifiers></_>
    <!-- stage 4 -->
    <_>
      <maxWeakCount>7</maxWeakCount>
      <stageThreshold>-1.7375658750534058e+00</stageThreshold>
      <weakClassifiers>
        <_>
          <internalNodes>
            0 -1 83 4.3925017118453979e-02</internalNodes>
          <leafValues>
            -6.7047309875488281e-01 3.7190082669258118e-01</leafValues></_>
        <_>
          <internalNodes>
            0 -1 142 3.0699972994625568e-03</internalNodes>
          <leafValues>
            -3.3540990948677063e-01 7.5806212425231934e-01</leafValues></_>
        <_>
          <internalNodes>
            0 -1 143 -6.7347264848649502e-04</internalNodes>
          <leafValues>
            6.4197081327438354e-01 -3.3021575212478638e-01</leafValues></_>
        <_>
          <internalNodes>
            0 -1 9 2.8727367520332336e-02</internalNodes>
          <leafValues>
            -3.0705970525741577e-01 6.0463339090347290e-01</leafValues></_>
        <_>
          <internalNodes>
            0 -1 136 7.5375908054411411e-03</internalNodes>
          <leafValues>
            -2.2515809535980225e-01 7.2989857196807861e-01</leafValues></_>
        <_>
          <internalNodes>
            0 -1 79 -1.5868508489802480e-03</internalNodes>
          <leafValues>
            6.2545204162597656e-01 -2.7615925669670105e-01</leafValues></_>
        <_>
          <internalNodes>
            0 -1 36 -1.2140063568949699e-02</internalNodes>
          <leafValues>
            -6.8656212091445923e-01 2.6153466105461121e-01</leafValues></_></weakClassifiers></_>
    <!-- stage 5 -->
    <_>
      <maxWeakCount>9</maxWeakCount>
      <stageThreshold>-1.0702997446060181e+00</stageThreshold>
      <weakClassifiers>
        <_>
          <internalNodes>
            0 -1 49 -2.0280483365058899e-01</internalNodes>
          <leafValues>
            6.2801934778690338e-02 -7.1916508674621582e-01</leafValues></_>
        <_>
          <internalNodes>
            0 -1 155 -5.8080133749172091e-04</internalNodes>
          <leafValues>
            -7.5588858127593994e-01 1.3272467255592346e-01</leafValues></_>
        <_>
          <internalNodes>
            0 -1 163 -2.0890656858682632e-02</internalNodes>
          <leafValues>
            3.7961986660957336e-01 -3.8026821613311768e-01</leafValues></_>
        <_>
          <internalNodes>
            0 -1 144 2.6886286213994026e-03</internalNodes>
          <leafValues>
            -1.7853890359401703e-01 6.8294024467468262e-01</leafValues></_>
        <_>
          <internalNodes>
            0 -1 133 9.1524538584053516e-04</internalNodes>
          <leafValues>
            -2.7384921908378601e-01 4.9826562404632568e-01</leafValues></_>
        <_>
          <internalNodes>
            0 -1 120 -2.9792520217597485e-04</internalNodes>
          <leafValues>
            -7.9596781730651855e-01 1.8937559425830841e-01</leafValues></_>
        <_>
          <internalNodes>
            0 -1 196 -4.2543158633634448e-04</internalNodes>
          <leafValues>
            -7.9564726352691650e-01 1.5721949934959412e-01</leafValues></_>
        <_>
          <internalNodes>
            0 -1 124 7.4492837302386761e-04</internalNodes>
          <leafValues>
            -3.1000357866287231e-01 4.8563656210899353e-01</leafValues></_>
        <_>
          <internalNodes>
            0 -1 67 7.3617463931441307e-03</internalNodes>
          <leafValues>
            -2.7020609378814697e-01 5.6571787595748901e-01</leafValues></_></weakClassifiers></_>
    <!-- stage 6 -->
    <_>
      <maxWeakCount>9</maxWeakCount>
      <stageThreshold>-1.4283918142318726e+00</stageThreshold>
      <weakClassifiers>
        <_>
          <internalNodes>
            0 -1 78 2.8488863259553909e-02</internalNodes>
          <leafValues>
            -6.8600684404373169e-01 2.4324324727058411e-01</leafValues></_>
        <_>
          <internalNodes>
            0 -1 175 -1.8292996101081371e-03</internalNodes>
          <leafValues>
            7.3766678571701050e-01 -2.6813074946403503e-01</leafValues></_>
        <_>
          <internalNodes>
            0 -1 40 -9.2063203454017639e-02</internalNodes>
          <leafValues>
            2.7650848031044006e-01 -5.2700227499008179e-01</leafValues></_>
        <_>
          <internalNodes>
            0 -1 66 6.8102421937510371e-04</internalNodes>
          <leafValues>
            -2.1668258309364319e-01 6.0384756326675415e-01</leafValues></_>
        <_>
          <internalNodes>
            0 -1 130 -1.0160033125430346e-03</internalNodes>
          <leafValues>
            -8.3512485027313232e-01 1.8683502078056335e-01</leafValues></_>
        <_>
          <internalNodes>
            0 -1 93 1.6917178872972727e-03</internalNodes>
          <leafValues>
            -2.5062635540962219e-01 5.9873032569885254e-01</leafValues></_>
        <_>
          <internalNodes>
            0 -1 105 1.8699970096349716e-03</internalNodes>
          <leafValues>
            -3.1358924508094788e-01 5.9866183996200562e-01</leafValues></_>
        <_>
          <internalNodes>
            0 -1 4 5.1019255071878433e-02</internalNodes>
          <leafValues>
            -3.4716841578483582e-01 4.3328568339347839e-01</leafValues></_>
        <_>
          <internalNodes>
            0 -1 14 -3.5590576590038836e-04</internalNodes>
          <leafValues>
            -7.3878121376037598e-01 2.1832685172557831e-01</leafValues></_></weakClassifiers></_>
    <!-- stage 7 -->
    <_>
      <maxWeakCount>6</maxWeakCount>
      <stageThreshold>-1.1784116029739380e+00</stageThreshold>
      <weakClassifiers>
        <_>
          <internalNodes>
            0 -1 170 1.4319596812129021e-03</internalNodes>
          <leafValues>
            -6.2711864709854126e-01 4.8235294222831726e-01</leafValues></_>
        <_>
          <internalNodes>
            0 -1 171 -5.9843785129487514e-04</internalNodes>
          <leafValues>
            5.8864241838455200e-01 -3.6590683460235596e-01</leafValues></_>
        <_>
          <internalNodes>
            0 -1 176 -5.6665495503693819e-04</internalNodes>
          <leafValues>
            7.3020201921463013e-01 -2.7489411830902100e-01</leafValues></_>
        <_>
          <internalNodes>
            0 -1 147 -4.4009828707203269e-04</internalNodes>
          <leafValues>
            5.4213267564773560e-01 -2.5448605418205261e-01</leafValues></_>
        <_>
          <internalNodes>
            0 -1 92 1.1258653830736876e-03</internalNodes>
          <leafValues>
            -2.1159762144088745e-01 6.6018068790435791e-01</leafValues></_>
        <_>
          <internalNodes>
            0 -1 101 6.4289435977116227e-04</internalNodes>
          <leafValues>
            -2.4102702736854553e-01 6.2447893619537354e-01</leafValues></_></weakClassifiers></_>
    <!-- stage 8 -->
    <_>
      <maxWeakCount>9</maxWeakCount>
      <stageThreshold>-1.5276064872741699e+00</stageThreshold>
      <weakClassifiers>
        <_>
          <internalNodes>
            0 -1 139 1.0369875468313694e-02</internalNodes>
          <leafValues>
            -6.8582373857498169e-01 -3.7735849618911743e-02</leafValues></_>
        <_>
          <internalNodes>
            0 -1 43 -4.2765466496348381e-03</internalNodes>
          <leafValues>
            5.9498989582061768e-01 -2.8911122679710388e-01</leafValues></_>
        <_>
          <internalNodes>
            0 -1 48 -2.7120955288410187e-02</internalNodes>
          <leafValues>
            3.1626310944557190e-01 -4.2637920379638672e-01</leafValues></_>
        <_>
          <internalNodes>
            0 -1 137 -8.2548824138939381e-04</internalNodes>
          <leafValues>
            -8.4702175855636597e-01 1.5341822803020477e-01</leafValues></_>
        <_>
          <internalNodes>
            0 -1 30 7.0052621886134148e-03</internalNodes>
          <leafValues>
            -1.9066835939884186e-01 7.5524133443832397e-01</leafValues></_>
        <_>
          <internalNodes>
            0 -1 141 3.1302887946367264e-03</internalNodes>
          <leafValues>
            -1.7696839570999146e-01 6.5836739540100098e-01</leafValues></_>
        <_>
          <internalNodes>
            0 -1 56 3.5599663853645325e-02</internalNodes>
          <leafValues>
            1.7991979420185089e-01 -6.8840748071670532e-01</leafValues></_>
        <_>
          <internalNodes>
            0 -1 161 -4.7771801473572850e-04</internalNodes>
          <leafValues>
            -5.9025454521179199e-01 2.1252018213272095e-01</leafValues></_>
        <_>
          <internalNodes>
            0 -1 51 1.5506808413192630e-03</internalNodes>
          <leafValues>
            -2.7152225375175476e-01 5.5010926723480225e-01</leafValues></_></weakClassifiers></_>
    <!-- stage 9 -->
    <_>
      <maxWeakCount>10</maxWeakCount>
      <stageThreshold>-1.3172668218612671e+00</stageThreshold>
      <weakClassifiers>
        <_>
          <internalNodes>
            0 -1 187 -3.6360986530780792e-02</internalNodes>
          <leafValues>
            3.6470589041709900e-01 -6.1171030998229980e-01</leafValues></_>
        <_>
          <internalNodes>
            0 -1 121 3.7439283914864063e-04</internalNodes>
          <leafValues>
            9.3541823327541351e-02 -7.8214567899703979e-01</leafValues></_>
        <_>
          <internalNodes>
            0 -1 122 -3.1945299357175827e-02</internalNodes>
          <leafValues>
            -6.6707873344421387e-01 1.5140850841999054e-01</leafValues></_>
        <_>
          <internalNodes>
            0 -1 184 4.6657619532197714e-04</internalNodes>
          <leafValues>
            1.5942174196243286e-01 -6.6540127992630005e-01</leafValues></_>
        <_>
          <internalNodes>
            0 -1 75 3.0141805764287710e-03</internalNodes>
          <leafValues>
            -2.3322322964668274e-01 4.9203118681907654e-01</leafValues></_>
        <_>
          <internalNodes>
            0 -1 153 3.4772525541484356e-03</internalNodes>
          <leafValues>
            -2.2473914921283722e-01 5.9397643804550171e-01</leafValues></_>
        <_>
          <internalNodes>
            0 -1 8 3.8269452750682831e-02</internalNodes>
          <leafValues>
            -2.2894398868083954e-01 5.0326001644134521e-01</leafValues></_>
        <_>
          <internalNodes>
            0 -1 25 -2.5257421657443047e-04</internalNodes>
          <leafValues>
            -6.7592912912368774e-01 2.0552270114421844e-01</leafValues></_>
        <_>
          <internalNodes>
            0 -1 81 1.8563243793323636e-03</internalNodes>
          <leafValues>
            -2.4724225699901581e-01 5.7801055908203125e-01</leafValues></_>
        <_>
          <internalNodes>
            0 -1 91 3.1213480979204178e-03</internalNodes>
          <leafValues>
            -2.2510516643524170e-01 5.8429068326950073e-01</leafValues></_></weakClassifiers></_>
    <!-- stage 10 -->
    <_>
      <maxWeakCount>9</maxWeakCount>
      <stageThreshold>-1.2662694454193115e+00</stageThreshold>
      <weakClassifiers>
        <_>
          <internalNodes>
            0 -1 181 -3.9750400930643082e-02</internalNodes>
          <leafValues>
            2.1978022530674934e-02 -6.7028987407684326e-01</leafValues></_>
        <_>
          <internalNodes>
            0 -1 168 -4.2384839616715908e-03</internalNodes>
          <leafValues>
            5.8897912502288818e-01 -2.5614461302757263e-01</leafValues></_>
        <_>
          <internalNodes>
            0 -1 32 4.3280348181724548e-03</internalNodes>
          <leafValues>
            -5.0020945072174072e-01 2.3601666092872620e-01</leafValues></_>
        <_>
          <internalNodes>
            0 -1 2 2.2375951521098614e-03</internalNodes>
          <leafValues>
            1.7175389826297760e-01 -6.3377279043197632e-01</leafValues></_>
        <_>
          <internalNodes>
            0 -1 74 1.4464803040027618e-02</internalNodes>
          <leafValues>
            -1.9772399961948395e-01 5.8811724185943604e-01</leafValues></_>
        <_>
          <internalNodes>
            0 -1 33 1.4485776424407959e-02</internalNodes>
          <leafValues>
            1.8535926938056946e-01 -6.4344435930252075e-01</leafValues></_>
        <_>
          <internalNodes>
            0 -1 103 -3.6137577146291733e-02</internalNodes>
          <leafValues>
            -8.2246279716491699e-01 1.4553530514240265e-01</leafValues></_>
        <_>
          <internalNodes>
            0 -1 53 -2.6845203246921301e-03</internalNodes>
          <leafValues>
            6.4920669794082642e-01 -1.9629226624965668e-01</leafValues></_>
        <_>
          <internalNodes>
            0 -1 62 -1.0407490655779839e-02</internalNodes>
          <leafValues>
            -9.5934343338012695e-01 1.2104276567697525e-01</leafValues></_></weakClassifiers></_>
    <!-- stage 11 -->
    <_>
      <maxWeakCount>13</maxWeakCount>
      <stageThreshold>-1.1186548471450806e+00</stageThreshold>
      <weakClassifiers>
        <_>
          <internalNodes>
            0 -1 110 3.5192310810089111e-02</internalNodes>
          <leafValues>
            -7.2803348302841187e-01 -7.0312500000000000e-02</leafValues></_>
        <_>
          <internalNodes>
            0 -1 183 2.0374632440507412e-03</internalNodes>
          <leafValues>
            -2.7643641829490662e-01 5.7724523544311523e-01</leafValues></_>
        <_>
          <internalNodes>
            0 -1 182 -5.3835916332900524e-03</internalNodes>
          <leafValues>
            5.7124030590057373e-01 -1.8150755763053894e-01</leafValues></_>
        <_>
          <internalNodes>
            0 -1 109 2.5932861026376486e-03</internalNodes>
          <leafValues>
            1.8525040149688721e-01 -6.2046313285827637e-01</leafValues></_>
        <_>
          <internalNodes>
            0 -1 185 2.1299507352523506e-04</internalNodes>
          <leafValues>
            2.4831698834896088e-01 -5.0657457113265991e-01</leafValues></_>
        <_>
          <internalNodes>
            0 -1 80 4.6962341293692589e-03</internalNodes>
          <leafValues>
            -1.9990096986293793e-01 5.8978289365768433e-01</leafValues></_>
        <_>
          <internalNodes>
            0 -1 148 2.1599109750241041e-03</internalNodes>
          <leafValues>
            -2.0564423501491547e-01 5.9691148996353149e-01</leafValues></_>
        <_>
          <internalNodes>
            0 -1 73 9.4809557776898146e-04</internalNodes>
          <leafValues>
            -2.2453582286834717e-01 5.5613619089126587e-01</leafValues></_>
        <_>
          <internalNodes>
            0 -1 126 -1.6701950225979090e-03</internalNodes>
          <leafValues>
            4.7902956604957581e-01 -2.2995483875274658e-01</leafValues></_>
        <_>
          <internalNodes>
            0 -1 114 2.9647053452208638e-04</internalNodes>
          <leafValues>
            1.9639094173908234e-01 -6.7354750633239746e-01</leafValues></_>
        <_>
          <internalNodes>
            0 -1 112 -6.8055361043661833e-04</internalNodes>
          <leafValues>
            -6.4868342876434326e-01 1.6159090399742126e-01</leafValues></_>
        <_>
          <internalNodes>
            0 -1 21 6.8223045673221350e-04</internalNodes>
          <leafValues>
            -3.0660256743431091e-01 3.6949205398559570e-01</leafValues></_>
        <_>
          <internalNodes>
            0 -1 123 8.4494531620293856e-04</internalNodes>
          <leafValues>
            -1.9330380856990814e-01 6.0652363300323486e-01</leafValues></_></weakClassifiers></_>
    <!-- stage 12 -->
    <_>
      <maxWeakCount>11</maxWeakCount>
      <stageThreshold>-1.5833345651626587e+00</stageThreshold>
      <weakClassifiers>
        <_>
          <internalNodes>
            0 -1 3 4.0847495198249817e-02</internalNodes>
          <leafValues>
            -6.8971961736679077e-01 1.5075377188622952e-02</leafValues></_>
        <_>
          <internalNodes>
            0 -1 115 2.9471572488546371e-02</internalNodes>
          <leafValues>
            -4.0006238222122192e-01 2.6536035537719727e-01</leafValues></_>
        <_>
          <internalNodes>
            0 -1 31 -2.9939510859549046e-03</internalNodes>
          <leafValues>
            2.8366383910179138e-01 -4.0322616696357727e-01</leafValues></_>
        <_>
          <internalNodes>
            0 -1 164 -2.7580845635384321e-03</internalNodes>
          <leafValues>
            4.5744356513023376e-01 -2.4771399796009064e-01</leafValues></_>
        <_>
          <internalNodes>
            0 -1 165 3.8323507178574800e-03</internalNodes>
          <leafValues>
            -1.9384062290191650e-01 5.8302730321884155e-01</leafValues></_>
        <_>
          <internalNodes>
            0 -1 77 4.2879936518147588e-04</internalNodes>
          <leafValues>
            1.9509583711624146e-01 -7.8139078617095947e-01</leafValues></_>
        <_>
          <internalNodes>
            0 -1 41 -2.9690070077776909e-03</internalNodes>
          <leafValues>
            4.6349570155143738e-01 -2.4062876403331757e-01</leafValues></_>
        <_>
          <internalNodes>
            0 -1 99 3.3173453994095325e-04</internalNodes>
          <leafValues>
            2.0141249895095825e-01 -6.2622672319412231e-01</leafValues></_>
        <_>
          <internalNodes>
            0 -1 39 -2.3990398040041327e-04</internalNodes>
          <leafValues>
            2.9948943853378296e-01 -3.5789993405342102e-01</leafValues></_>
        <_>
          <internalNodes>
            0 -1 42 -6.3068671151995659e-03</internalNodes>
          <leafValues>
            4.0006220340728760e-01 -2.8560137748718262e-01</leafValues></_>
        <_>
          <internalNodes>
            0 -1 111 2.3281930014491081e-02</internalNodes>
          <leafValues>
            1.5195989608764648e-01 -7.6479738950729370e-01</leafValues></_></weakClassifiers></_>
    <!-- stage 13 -->
    <_>
      <maxWeakCount>15</maxWeakCount>
      <stageThreshold>-1.6067428588867188e+00</stageThreshold>
      <weakClassifiers>
        <_>
          <internalNodes>
            0 -1 159 2.0772677380591631e-03</internalNodes>
          <leafValues>
            -6.0615384578704834e-01 3.3333334326744080e-01</leafValues></_>
        <_>
          <internalNodes>
            0 -1 95 -5.2825743332505226e-03</internalNodes>
          <leafValues>
            -7.2058361768722534e-01 9.6426539123058319e-02</leafValues></_>
        <_>
          <internalNodes>
            0 -1 166 6.9298455491662025e-04</internalNodes>
          <leafValues>
            -2.5122281908988953e-01 4.6323883533477783e-01</leafValues></_>
        <_>
          <internalNodes>
            0 -1 160 1.6832942143082619e-02</internalNodes>
          <leafValues>
            -1.8777295947074890e-01 5.3580981492996216e-01</leafValues></_>
        <_>
          <internalNodes>
            0 -1 35 -3.2543458044528961e-02</internalNodes>
          <leafValues>
            -7.2158074378967285e-01 2.0284532010555267e-01</leafValues></_>
        <_>
          <internalNodes>
            0 -1 20 1.8563143908977509e-02</internalNodes>
          <leafValues>
            -3.0215421319007874e-01 3.4006598591804504e-01</leafValues></_>
        <_>
          <internalNodes>
            0 -1 61 2.5649346411228180e-02</internalNodes>
          <leafValues>
            1.3709920644760132e-01 -9.0987277030944824e-01</leafValues></_>
        <_>
          <internalNodes>
            0 -1 64 5.8242669329047203e-03</internalNodes>
          <leafValues>
            -2.2116339206695557e-01 5.7318264245986938e-01</leafValues></_>
        <_>
          <internalNodes>
            0 -1 71 2.7440849225968122e-03</internalNodes>
          <leafValues>
            -2.1993185579776764e-01 4.9631685018539429e-01</leafValues></_>
        <_>
          <internalNodes>
            0 -1 55 7.6153650297783315e-05</internalNodes>
          <leafValues>
            -2.7353581786155701e-01 3.8181751966476440e-01</leafValues></_>
        <_>
          <internalNodes>
            0 -1 12 7.1747624315321445e-04</internalNodes>
          <leafValues>
            1.5752570331096649e-01 -6.9599306583404541e-01</leafValues></_>
        <_>
          <internalNodes>
            0 -1 188 -3.4615129698067904e-03</internalNodes>
          <leafValues>
            5.9351277351379395e-01 -2.1189080178737640e-01</leafValues></_>
        <_>
          <internalNodes>
            0 -1 16 1.4445499982684851e-03</internalNodes>
          <leafValues>
            1.4957726001739502e-01 -7.5016009807586670e-01</leafValues></_>
        <_>
          <internalNodes>
            0 -1 146 1.8406391609460115e-03</internalNodes>
          <leafValues>
            1.3793045282363892e-01 -6.6226112842559814e-01</leafValues></_>
        <_>
          <internalNodes>
            0 -1 46 2.9128473252058029e-03</internalNodes>
          <leafValues>
            -2.1432159841060638e-01 5.7202726602554321e-01</leafValues></_></weakClassifiers></_>
    <!-- stage 14 -->
    <_>
      <maxWeakCount>12</maxWeakCount>
      <stageThreshold>-1.1804096698760986e+00</stageThreshold>
      <weakClassifiers>
        <_>
          <internalNodes>
            0 -1 7 4.6397645026445389e-02</internalNodes>
          <leafValues>
            -6.3951474428176880e-01 1.9108280539512634e-02</leafValues></_>
        <_>
          <internalNodes>
            0 -1 131 -4.9848467111587524e-02</internalNodes>
          <leafValues>
            -9.6858233213424683e-01 1.4966680668294430e-02</leafValues></_>
        <_>
          <internalNodes>
            0 -1 45 4.2837716639041901e-02</internalNodes>
          <leafValues>
            1.1399383842945099e-01 -8.2146549224853516e-01</leafValues></_>
        <_>
          <internalNodes>
            0 -1 58 1.4599584974348545e-03</internalNodes>
          <leafValues>
            -3.6541116237640381e-01 2.4160884320735931e-01</leafValues></_>
        <_>
          <internalNodes>
            0 -1 47 5.6982040405273438e-02</internalNodes>
          <leafValues>
            1.0413130372762680e-01 -8.9477801322937012e-01</leafValues></_>
        <_>
          <internalNodes>
            0 -1 85 -6.3901515677571297e-03</internalNodes>
          <leafValues>
            5.6456404924392700e-01 -1.8550543487071991e-01</leafValues></_>
        <_>
          <internalNodes>
            0 -1 140 1.7728874459862709e-02</internalNodes>
          <leafValues>
            1.4765594899654388e-01 -7.6645630598068237e-01</leafValues></_>
        <_>
          <internalNodes>
            0 -1 154 1.5112935216166079e-04</internalNodes>
          <leafValues>
            -3.0511170625686646e-01 3.1546616554260254e-01</leafValues></_>
        <_>
          <internalNodes>
            0 -1 138 -1.1059986427426338e-02</internalNodes>
          <leafValues>
            5.1214063167572021e-01 -2.0281799137592316e-01</leafValues></_>
        <_>
          <internalNodes>
            0 -1 129 9.8551134578883648e-04</internalNodes>
          <leafValues>
            1.4387129247188568e-01 -7.9419678449630737e-01</leafValues></_>
        <_>
          <internalNodes>
            0 -1 118 1.8410276621580124e-02</internalNodes>
          <leafValues>
            -2.7063611149787903e-01 4.0071928501129150e-01</leafValues></_>
        <_>
          <internalNodes>
            0 -1 27 2.2528984118252993e-05</internalNodes>
          <leafValues>
            -3.4305164217948914e-01 2.8692105412483215e-01</leafValues></_></weakClassifiers></_>
    <!-- stage 15 -->
    <_>
      <maxWeakCount>11</maxWeakCount>
      <stageThreshold>-1.3114989995956421e+00</stageThreshold>
      <weakClassifiers>
        <_>
          <internalNodes>
            0 -1 190 9.7455857321619987e-03</internalNodes>
          <leafValues>
            -5.5907779932022095e-01 5.5000001192092896e-01</leafValues></_>
        <_>
          <internalNodes>
            0 -1 5 2.2710822522640228e-02</internalNodes>
          <leafValues>
            -2.9723751544952393e-01 3.3649745583534241e-01</leafValues></_>
        <_>
          <internalNodes>
            0 -1 195 2.4601663462817669e-03</internalNodes>
          <leafValues>
            1.2349292635917664e-01 -6.7393958568572998e-01</leafValues></_>
        <_>
          <internalNodes>
            0 -1 192 3.3759211655706167e-03</internalNodes>
          <leafValues>
            1.8373461067676544e-01 -6.9379782676696777e-01</leafValues></_>
        <_>
          <internalNodes>
            0 -1 152 -2.7984040789306164e-03</internalNodes>
          <leafValues>
            6.4564007520675659e-01 -1.6866628825664520e-01</leafValues></_>
        <_>
          <internalNodes>
            0 -1 10 6.9210783112794161e-04</internalNodes>
          <leafValues>
            1.7894500494003296e-01 -6.5542101860046387e-01</leafValues></_>
        <_>
          <internalNodes>
            0 -1 158 -4.4356798753142357e-03</internalNodes>
          <leafValues>
            6.0378146171569824e-01 -2.0547406375408173e-01</leafValues></_>
        <_>
          <internalNodes>
            0 -1 72 5.1488023018464446e-04</internalNodes>
          <leafValues>
            -2.7682611346244812e-01 3.2007476687431335e-01</leafValues></_>
        <_>
          <internalNodes>
            0 -1 132 5.4856585338711739e-03</internalNodes>
          <leafValues>
            -2.9126822948455811e-01 3.2745018601417542e-01</leafValues></_>
        <_>
          <internalNodes>
            0 -1 50 6.3616433180868626e-04</internalNodes>
          <leafValues>
            -2.5896185636520386e-01 3.4271106123924255e-01</leafValues></_>
        <_>
          <internalNodes>
            0 -1 15 3.1309086829423904e-02</internalNodes>
          <leafValues>
            -1.3642948865890503e-01 6.7398965358734131e-01</leafValues></_></weakClassifiers></_>
    <!-- stage 16 -->
    <_>
      <maxWeakCount>11</maxWeakCount>
      <stageThreshold>-1.2737644910812378e+00</stageThreshold>
      <weakClassifiers>
        <_>
          <internalNodes>
            0 -1 88 3.9025686681270599e-02</internalNodes>
          <leafValues>
            -6.2607204914093018e-01 -6.6225165501236916e-03</leafValues></_>
        <_>
          <internalNodes>
            0 -1 134 -8.1719970330595970e-04</internalNodes>
          <leafValues>
            4.3174052238464355e-01 -2.2936132550239563e-01</leafValues></_>
        <_>
          <internalNodes>
            0 -1 76 5.6406953372061253e-03</internalNodes>
          <leafValues>
            -1.1180622130632401e-01 6.6146546602249146e-01</leafValues></_>
        <_>
          <internalNodes>
            0 -1 22 -6.4566018991172314e-03</internalNodes>
          <leafValues>
            4.5054024457931519e-01 -1.9358761608600616e-01</leafValues></_>
        <_>
          <internalNodes>
            0 -1 172 -3.4889047965407372e-03</internalNodes>
          <leafValues>
            5.6421571969985962e-01 -1.3308891654014587e-01</leafValues></_>
        <_>
          <internalNodes>
            0 -1 197 1.5702464152127504e-03</internalNodes>
          <leafValues>
            1.2391725927591324e-01 -7.1081566810607910e-01</leafValues></_>
        <_>
          <internalNodes>
            0 -1 186 5.5553391575813293e-05</internalNodes>
          <leafValues>
            -2.7478221058845520e-01 3.4266373515129089e-01</leafValues></_>
        <_>
          <internalNodes>
            0 -1 108 1.5259882202371955e-03</internalNodes>
          <leafValues>
            1.1145637184381485e-01 -6.9370847940444946e-01</leafValues></_>
        <_>
          <internalNodes>
            0 -1 135 1.4607277698814869e-03</internalNodes>
          <leafValues>
            -2.3485703766345978e-01 3.6417847871780396e-01</leafValues></_>
        <_>
          <internalNodes>
            0 -1 149 -7.2455266490578651e-04</internalNodes>
          <leafValues>
            4.7548684477806091e-01 -2.0526145398616791e-01</leafValues></_>
        <_>
          <internalNodes>
            0 -1 86 1.7868244322016835e-04</internalNodes>
          <leafValues>
            -2.7359297871589661e-01 3.3902987837791443e-01</leafValues></_></weakClassifiers></_>
    <!-- stage 17 -->
    <_>
      <maxWeakCount>16</maxWeakCount>
      <stageThreshold>-1.5413063764572144e+00</stageThreshold>
      <weakClassifiers>
        <_>
          <internalNodes>
            0 -1 127 3.6059948615729809e-03</internalNodes>
          <leafValues>
            -5.8566975593566895e-01 1.0869564861059189e-01</leafValues></_>
        <_>
          <internalNodes>
            0 -1 59 -2.5080941617488861e-02</internalNodes>
          <leafValues>
            -7.4738466739654541e-01 4.7229088842868805e-02</leafValues></_>
        <_>
          <internalNodes>
            0 -1 113 5.7948414236307144e-02</internalNodes>
          <leafValues>
            -2.9614195227622986e-01 2.9137840867042542e-01</leafValues></_>
        <_>
          <internalNodes>
            0 -1 102 -5.9663783758878708e-04</internalNodes>
          <leafValues>
            2.9246163368225098e-01 -2.8850585222244263e-01</leafValues></_>
        <_>
          <internalNodes>
            0 -1 167 2.6426456315675750e-05</internalNodes>
          <leafValues>
            -2.3245935142040253e-01 3.5375761985778809e-01</leafValues></_>
        <_>
          <internalNodes>
            0 -1 162 1.6654755920171738e-02</internalNodes>
          <leafValues>
            8.0105878412723541e-02 -8.6578333377838135e-01</leafValues></_>
        <_>
          <internalNodes>
            0 -1 125 -4.1255755349993706e-03</internalNodes>
          <leafValues>
            3.8230901956558228e-01 -2.3216103017330170e-01</leafValues></_>
        <_>
          <internalNodes>
            0 -1 60 -2.4517690762877464e-03</internalNodes>
          <leafValues>
            2.1655312180519104e-01 -4.2373776435852051e-01</leafValues></_>
        <_>
          <internalNodes>
            0 -1 169 1.0532401211094111e-04</internalNodes>
          <leafValues>
            -2.7421018481254578e-01 3.0097299814224243e-01</leafValues></_>
        <_>
          <internalNodes>
            0 -1 177 1.1395786423236132e-03</internalNodes>
          <leafValues>
            -1.8664833903312683e-01 4.6605375409126282e-01</leafValues></_>
        <_>
          <internalNodes>
            0 -1 194 5.1741173956543207e-04</internalNodes>
          <leafValues>
            1.1892527341842651e-01 -8.2040315866470337e-01</leafValues></_>
        <_>
          <internalNodes>
            0 -1 177 -2.1443315781652927e-03</internalNodes>
          <leafValues>
            6.2231028079986572e-01 -1.6544581949710846e-01</leafValues></_>
        <_>
          <internalNodes>
            0 -1 87 -2.0710250828415155e-03</internalNodes>
          <leafValues>
            4.3771243095397949e-01 -1.9410446286201477e-01</leafValues></_>
        <_>
          <internalNodes>
            0 -1 128 -3.0133855761960149e-04</internalNodes>
          <leafValues>
            -5.7929837703704834e-01 1.6371512413024902e-01</leafValues></_>
        <_>
          <internalNodes>
            0 -1 52 -3.5177796962670982e-04</internalNodes>
          <leafValues>
            3.7969025969505310e-01 -2.3588152229785919e-01</leafValues></_>
        <_>
          <internalNodes>
            0 -1 37 -6.1857928812969476e-05</internalNodes>
          <leafValues>
            3.1210023164749146e-01 -2.9442903399467468e-01</leafValues></_></weakClassifiers></_>
    <!-- stage 18 -->
    <_>
      <maxWeakCount>13</maxWeakCount>
      <stageThreshold>-1.2668981552124023e+00</stageThreshold>
      <weakClassifiers>
        <_>
          <internalNodes>
            0 -1 54 -8.0234808847308159e-03</internalNodes>
          <leafValues>
            5.4285717010498047e-01 -5.5078685283660889e-01</leafValues></_>
        <_>
          <internalNodes>
            0 -1 11 -3.8578405976295471e-02</internalNodes>
          <leafValues>
            -9.2347902059555054e-01 3.1945861876010895e-02</leafValues></_>
        <_>
          <internalNodes>
            0 -1 23 -3.4452299587428570e-03</internalNodes>
          <leafValues>
            3.3030357956886292e-01 -3.2933443784713745e-01</leafValues></_>
        <_>
          <internalNodes>
            0 -1 70 2.6867664419114590e-03</internalNodes>
          <leafValues>
            -2.6335161924362183e-01 3.5512197017669678e-01</leafValues></_>
        <_>
          <internalNodes>
            0 -1 89 2.8537533944472671e-04</internalNodes>
          <leafValues>
            1.6227494180202484e-01 -5.9668177366256714e-01</leafValues></_>
        <_>
          <internalNodes>
            0 -1 119 4.0112440474331379e-03</internalNodes>
          <leafValues>
            -2.0443028211593628e-01 4.0625807642936707e-01</leafValues></_>
        <_>
          <internalNodes>
            0 -1 65 -1.7068669199943542e-02</internalNodes>
          <leafValues>
            -7.3893302679061890e-01 1.4734098315238953e-01</leafValues></_>
        <_>
          <internalNodes>
            0 -1 191 1.4934057253412902e-04</internalNodes>
          <leafValues>
            -2.8583467006683350e-01 3.0826523900032043e-01</leafValues></_>
        <_>
          <internalNodes>
            0 -1 180 -1.7515009269118309e-02</internalNodes>
          <leafValues>
            4.2268222570419312e-01 -2.2660796344280243e-01</leafValues></_>
        <_>
          <internalNodes>
            0 -1 193 8.2554330583661795e-04</internalNodes>
          <leafValues>
            1.3511750102043152e-01 -7.5774997472763062e-01</leafValues></_>
        <_>
          <internalNodes>
            0 -1 68 -1.2370946351438761e-03</internalNodes>
          <leafValues>
            -4.4880768656730652e-01 1.8715508282184601e-01</leafValues></_>
        <_>
          <internalNodes>
            0 -1 57 -2.8689217288047075e-03</internalNodes>
          <leafValues>
            5.1200926303863525e-01 -1.8002857267856598e-01</leafValues></_>
        <_>
          <internalNodes>
            0 -1 178 1.9472390704322606e-05</internalNodes>
          <leafValues>
            -3.0304089188575745e-01 2.9198786616325378e-01</leafValues></_></weakClassifiers></_>
    <!-- stage 19 -->
    <_>
      <maxWeakCount>14</maxWeakCount>
      <stageThreshold>-1.2594406604766846e+00</stageThreshold>
      <weakClassifiers>
        <_>
          <internalNodes>
            0 -1 106 -2.4700858630239964e-03</internalNodes>
          <leafValues>
            -1.0588235408067703e-01 -6.1702126264572144e-01</leafValues></_>
        <_>
          <internalNodes>
            0 -1 0 -2.2012125700712204e-03</internalNodes>
          <leafValues>
            -7.3442113399505615e-01 4.9869086593389511e-02</leafValues></_>
        <_>
          <internalNodes>
            0 -1 6 8.0683026462793350e-03</internalNodes>
          <leafValues>
            1.4385662972927094e-01 -6.4010572433471680e-01</leafValues></_>
        <_>
          <internalNodes>
            0 -1 90 -4.9315770156681538e-03</internalNodes>
          <leafValues>
            2.4456858634948730e-01 -3.0881381034851074e-01</leafValues></_>
        <_>
          <internalNodes>
            0 -1 24 -7.4001040775328875e-04</internalNodes>
          <leafValues>
            -7.0358878374099731e-01 1.2779849767684937e-01</leafValues></_>
        <_>
          <internalNodes>
            0 -1 98 -1.2699473649263382e-02</internalNodes>
          <leafValues>
            4.1030299663543701e-01 -1.8901515007019043e-01</leafValues></_>
        <_>
          <internalNodes>
            0 -1 189 4.7514857724308968e-03</internalNodes>
          <leafValues>
            -1.4147017896175385e-01 5.5635219812393188e-01</leafValues></_>
        <_>
          <internalNodes>
            0 -1 17 -8.6918217130005360e-04</internalNodes>
          <leafValues>
            3.3299383521080017e-01 -2.3725031316280365e-01</leafValues></_>
        <_>
          <internalNodes>
            0 -1 157 -1.1724588694050908e-03</internalNodes>
          <leafValues>
            -8.1523436307907104e-01 9.8475232720375061e-02</leafValues></_>
        <_>
          <internalNodes>
            0 -1 82 6.9516623625531793e-04</internalNodes>
          <leafValues>
            -2.0798222720623016e-01 3.8413164019584656e-01</leafValues></_>
        <_>
          <internalNodes>
            0 -1 82 -1.1629599612206221e-03</internalNodes>
          <leafValues>
            4.6721774339675903e-01 -1.7066317796707153e-01</leafValues></_>
        <_>
          <internalNodes>
            0 -1 63 4.2171999812126160e-03</internalNodes>
          <leafValues>
            -3.5715571045875549e-01 2.1385954320430756e-01</leafValues></_>
        <_>
          <internalNodes>
            0 -1 44 -2.8131878934800625e-03</internalNodes>
          <leafValues>
            5.0150728225708008e-01 -1.6434355080127716e-01</leafValues></_>
        <_>
          <internalNodes>
            0 -1 84 9.0693050879053771e-05</internalNodes>
          <leafValues>
            -2.6388174295425415e-01 3.3185589313507080e-01</leafValues></_></weakClassifiers></_></stages>
  <features>
    <_>
      <rects>
        <_>
          0 0 2 12 -1.</_>
        <_>
          0 0 1 6 2.</_>
        <_>
          1 6 1 6 2.</_></rects>
      <tilted>0</tilted></_>
    <_>
      <rects>
        <_>
          0 0 16 10 -1.</_>
        <_>
          0 0 8 5 2.</_>
        <_>
          8 5 8 5 2.</_></rects>
      <tilted>0</tilted></_>
    <_>
      <rects>
        <_>
          0 1 2 22 -1.</_>
        <_>
          1 1 1 22 2.</_></rects>
      <tilted>0</tilted></_>
    <_>
      <rects>
        <_>
          0 1 8 18 -1.</_>
        <_>
          4 1 4 18 2.</_></rects>
      <tilted>0</tilted></_>
    <_>
      <rects>
        <_>
          0 1 12 18 -1.</_>
        <_>
          6 1 6 18 2.</_></rects>
      <tilted>0</tilted></_>
    <_>
      <rects>
        <_>
          0 4 10 5 -1.</_>
        <_>
          5 4 5 5 2.</_></rects>
      <tilted>0</tilted></_>
    <_>
      <rects>
        <_>
          0 5 1 15 -1.</_>
        <_>
          0 10 1 5 3.</_></rects>
      <tilted>0</tilted></_>
    <_>
      <rects>
        <_>
          0 5 8 12 -1.</_>
        <_>
          4 5 4 12 2.</_></rects>
      <tilted>0</tilted></_>
    <_>
      <rects>
        <_>
          0 5 8 13 -1.</_>
        <_>
          4 5 4 13 2.</_></rects>
      <tilted>0</tilted></_>
    <_>
      <rects>
        <_>
          0 5 10 7 -1.</_>
        <_>
          5 5 5 7 2.</_></rects>
      <tilted>0</tilted></_>
    <_>
      <rects>
        <_>
          0 7 2 2 -1.</_>
        <_>
          0 8 2 1 2.</_></rects>
      <tilted>0</tilted></_>
    <_>
      <rects>
        <_>
          0 7 16 6 -1.</_>
        <_>
          0 9 16 2 3.</_></rects>
      <tilted>0</tilted></_>
    <_>
      <rects>
        <_>
          0 10 4 2 -1.</_>
        <_>
          0 10 2 1 2.</_>
        <_>
          2 11 2 1 2.</_></rects>
      <tilted>0</tilted></_>
    <_>
      <rects>
        <_>
          0 10 14 14 -1.</_>
        <_>
          0 10 7 7 2.</_>
        <_>
          7 17 7 7 2.</_></rects>
      <tilted>0</tilted></_>
    <_>
      <rects>
        <_>
          1 0 3 1 -1.</_>
        <_>
          2 0 1 1 3.</_></rects>
      <tilted>0</tilted></_>
    <_>
      <rects>
        <_>
          1 2 30 4 -1.</_>
        <_>
          1 2 15 2 2.</_>
        <_>
          16 4 15 2 2.</_></rects>
      <tilted>0</tilted></_>
    <_>
      <rects>
        <_>
          1 3 2 3 -1.</_>
        <_>
          1 4 2 1 3.</_></rects>
      <tilted>0</tilted></_>
    <_>
      <rects>
        <_>
          1 6 6 4 -1.</_>
        <_>
          1 6 3 2 2.</_>
        <_>
          4 8 3 2 2.</_></rects>
      <tilted>0</tilted></_>
    <_>
      <rects>
        <_>
          1 7 8 8 -1.</_>
        <_>
          1 7 4 4 2.</_>
        <_>
          5 11 4 4 2.</_></rects>
      <tilted>0</tilted></_>
    <_>
      <rects>
        <_>
          1 9 21 4 -1.</_>
        <_>
          8 9 7 4 3.</_></rects>
      <tilted>0</tilted></_>
    <_>
      <rects>
        <_>
          1 10 27 2 -1.</_>
        <_>
          10 10 9 2 3.</_></rects>
      <tilted>0</tilted></_>
    <_>
      <rects>
        <_>
          1 13 8 2 -1.</_>
        <_>
          1 13 4 1 2.</_>
        <_>
          5 14 4 1 2.</_></rects>
      <tilted>0</tilted></_>
    <_>
      <rects>
        <_>
          1 16 22 2 -1.</_>
        <_>
          1 16 11 1 2.</_>
        <_>
          12 17 11 1 2.</_></rects>
      <tilted>0</tilted></_>
    <_>
      <rects>
        <_>
          2 7 13 6 -1.</_>
        <_>
          2 9 13 2 3.</_></rects>
      <tilted>0</tilted></_>
    <_>
      <rects>
        <_>
          2 9 1 3 -1.</_>
        <_>
          2 10 1 1 3.</_></rects>
      <tilted>0</tilted></_>
    <_>
      <rects>
        <_>
          2 23 3 1 -1.</_>
        <_>
          3 23 1 1 3.</_></rects>
      <tilted>0</tilted></_>
    <_>
      <rects>
        <_>
          3 0 6 6 -1.</_>
        <_>
          3 3 6 3 2.</_></rects>
      <tilted>0</tilted></_>
    <_>
      <rects>
        <_>
          3 5 1 2 -1.</_>
        <_>
          3 6 1 1 2.</_></rects>
      <tilted>0</tilted></_>
    <_>
      <rects>
        <_>
          3 7 23 6 -1.</_>
        <_>
          3 9 23 2 3.</_></rects>
      <tilted>0</tilted></_>
    <_>
      <rects>
        <_>
          4 1 8 16 -1.</_>
        <_>
          4 1 4 8 2.</_>
        <_>
          8 9 4 8 2.</_></rects>
      <tilted>0</tilted></_>
    <_>
      <rects>
        <_>
          4 6 3 8 -1.</_>
        <_>
          5 6 1 8 3.</_></rects>
      <tilted>0</tilted></_>
    <_>
      <rects>
        <_>
          4 7 22 6 -1.</_>
        <_>
          4 9 22 2 3.</_></rects>
      <tilted>0</tilted></_>
    <_>
      <rects>
        <_>
          4 9 12 9 -1.</_>
        <_>
          10 9 6 9 2.</_></rects>
      <tilted>0</tilted></_>
    <_>
      <rects>
        <_>
          5 0 12 7 -1.</_>
        <_>
          9 0 4 7 3.</_></rects>
      <tilted>0</tilted></_>
    <_>
      <rects>
        <_>
          5 1 10 9 -1.</_>
        <_>
          5 4 10 3 3.</_></rects>
      <tilted>0</tilted></_>
    <_>
      <rects>
        <_>
          5 5 20 7 -1.</_>
        <_>
          15 5 10 7 2.</_></rects>
      <tilted>0</tilted></_>
    <_>
      <rects>
        <_>
          5 10 24 14 -1.</_>
        <_>
          13 10 8 14 3.</_></rects>
      <tilted>0</tilted></_>
    <_>
      <rects>
        <_>
          6 0 2 4 -1.</_>
        <_>
          7 0 1 4 2.</_></rects>
      <tilted>0</tilted></_>
    <_>
      <rects>
        <_>
          6 0 16 6 -1.</_>
        <_>
          6 2 16 2 3.</_></rects>
      <tilted>0</tilted></_>
    <_>
      <rects>
        <_>
          6 2 4 3 -1.</_>
        <_>
          8 2 2 3 2.</_></rects>
      <tilted>0</tilted></_>
    <_>
      <rects>
        <_>
          6 6 23 18 -1.</_>
        <_>
          6 15 23 9 2.</_></rects>
      <tilted>0</tilted></_>
    <_>
      <rects>
        <_>
          6 7 2 12 -1.</_>
        <_>
          6 7 1 6 2.</_>
        <_>
          7 13 1 6 2.</_></rects>
      <tilted>0</tilted></_>
    <_>
      <rects>
        <_>
          6 7 14 9 -1.</_>
        <_>
          6 10 14 3 3.</_></rects>
      <tilted>0</tilted></_>
    <_>
      <rects>
        <_>
          6 8 3 5 -1.</_>
        <_>
          7 8 1 5 3.</_></rects>
      <tilted>0</tilted></_>
    <_>
      <rects>
        <_>
          7 0 12 2 -1.</_>
        <_>
          7 0 6 1 2.</_>
        <_>
          13 1 6 1 2.</_></rects>
      <tilted>0</tilted></_>
    <_>
      <rects>
        <_>
          7 0 16 10 -1.</_>
        <_>
          15 0 8 10 2.</_></rects>
      <tilted>0</tilted></_>
    <_>
      <rects>
        <_>
          7 3 3 3 -1.</_>
        <_>
          7 4 3 1 3.</_></rects>
      <tilted>0</tilted></_>
    <_>
      <rects>
        <_>
          7 5 18 6 -1.</_>
        <_>
          13 5 6 6 3.</_></rects>
      <tilted>0</tilted></_>
    <_>
      <rects>
        <_>
          7 8 5 16 -1.</_>
        <_>
          7 16 5 8 2.</_></rects>
      <tilted>0</tilted></_>
    <_>
      <rects>
        <_>
          7 8 20 16 -1.</_>
        <_>
          7 16 20 8 2.</_></rects>
      <tilted>0</tilted></_>
    <_>
      <rects>
        <_>
          7 10 2 2 -1.</_>
        <_>
          8 10 1 2 2.</_></rects>
      <tilted>0</tilted></_>
    <_>
      <rects>
        <_>
          7 10 3 3 -1.</_>
        <_>
          8 10 1 3 3.</_></rects>
      <tilted>0</tilted></_>
    <_>
      <rects>
        <_>
          7 11 3 3 -1.</_>
        <_>
          8 11 1 3 3.</_></rects>
      <tilted>0</tilted></_>
    <_>
      <rects>
        <_>
          7 11 2 6 -1.</_>
        <_>
          7 11 1 3 2.</_>
        <_>
          8 14 1 3 2.</_></rects>
      <tilted>0</tilted></_>
    <_>
      <rects>
        <_>
          7 15 3 3 -1.</_>
        <_>
          7 16 3 1 3.</_></rects>
      <tilted>0</tilted></_>
    <_>
      <rects>
        <_>
          7 16 4 2 -1.</_>
        <_>
          7 17 4 1 2.</_></rects>
      <tilted>0</tilted></_>
    <_>
      <rects>
        <_>
          8 3 20 17 -1.</_>
        <_>
          18 3 10 17 2.</_></rects>
      <tilted>0</tilted></_>
    <_>
      <rects>
        <_>
          8 5 3 3 -1.</_>
        <_>
          8 6 3 1 3.</_></rects>
      <tilted>0</tilted></_>
    <_>
      <rects>
        <_>
          8 5 8 4 -1.</_>
        <_>
          12 5 4 4 2.</_></rects>
      <tilted>0</tilted></_>
    <_>
      <rects>
        <_>
          8 8 15 9 -1.</_>
        <_>
          13 8 5 9 3.</_></rects>
      <tilted>0</tilted></_>
    <_>
      <rects>
        <_>
          8 10 1 14 -1.</_>
        <_>
          8 17 1 7 2.</_></rects>
      <tilted>0</tilted></_>
    <_>
      <rects>
        <_>
          8 10 8 8 -1.</_>
        <_>
          12 10 4 8 2.</_></rects>
      <tilted>0</tilted></_>
    <_>
      <rects>
        <_>
          8 15 9 5 -1.</_>
        <_>
          11 15 3 5 3.</_></rects>
      <tilted>0</tilted></_>
    <_>
      <rects>
        <_>
          9 1 1 21 -1.</_>
        <_>
          9 8 1 7 3.</_></rects>
      <tilted>0</tilted></_>
    <_>
      <rects>
        <_>
          9 4 3 10 -1.</_>
        <_>
          10 4 1 10 3.</_></rects>
      <tilted>0</tilted></_>
    <_>
      <rects>
        <_>
          9 6 6 6 -1.</_>
        <_>
          9 9 6 3 2.</_></rects>
      <tilted>0</tilted></_>
    <_>
      <rects>
        <_>
          9 9 2 1 -1.</_>
        <_>
          10 9 1 1 2.</_></rects>
      <tilted>0</tilted></_>
    <_>
      <rects>
        <_>
          9 9 1 15 -1.</_>
        <_>
          9 14 1 5 3.</_></rects>
      <tilted>0</tilted></_>
    <_>
      <rects>
        <_>
          9 11 8 5 -1.</_>
        <_>
          13 11 4 5 2.</_></rects>
      <tilted>0</tilted></_>
    <_>
      <rects>
        <_>
          10 1 15 12 -1.</_>
        <_>
          10 5 15 4 3.</_></rects>
      <tilted>0</tilted></_>
    <_>
      <rects>
        <_>
          10 5 4 3 -1.</_>
        <_>
          10 6 4 1 3.</_></rects>
      <tilted>0</tilted></_>
    <_>
      <rects>
        <_>
          10 7 3 8 -1.</_>
        <_>
          11 7 1 8 3.</_></rects>
      <tilted>0</tilted></_>
    <_>
      <rects>
        <_>
          10 7 12 1 -1.</_>
        <_>
          14 7 4 1 3.</_></rects>
      <tilted>0</tilted></_>
    <_>
      <rects>
        <_>
          10 10 3 1 -1.</_>
        <_>
          11 10 1 1 3.</_></rects>
      <tilted>0</tilted></_>
    <_>
      <rects>
        <_>
          10 12 4 6 -1.</_>
        <_>
          10 14 4 2 3.</_></rects>
      <tilted>0</tilted></_>
    <_>
      <rects>
        <_>
          10 13 8 4 -1.</_>
        <_>
          10 15 8 2 2.</_></rects>
      <tilted>0</tilted></_>
    <_>
      <rects>
        <_>
          10 16 12 2 -1.</_>
        <_>
          10 16 6 1 2.</_>
        <_>
          16 17 6 1 2.</_></rects>
      <tilted>0</tilted></_>
    <_>
      <rects>
        <_>
          11 0 3 1 -1.</_>
        <_>
          12 0 1 1 3.</_></rects>
      <tilted>0</tilted></_>
    <_>
      <rects>
        <_>
          11 1 7 6 -1.</_>
        <_>
          11 4 7 3 2.</_></rects>
      <tilted>0</tilted></_>
    <_>
      <rects>
        <_>
          11 5 1 6 -1.</_>
        <_>
          11 7 1 2 3.</_></rects>
      <tilted>0</tilted></_>
    <_>
      <rects>
        <_>
          11 6 3 8 -1.</_>
        <_>
          12 6 1 8 3.</_></rects>
      <tilted>0</tilted></_>
    <_>
      <rects>
        <_>
          11 8 3 3 -1.</_>
        <_>
          12 8 1 3 3.</_></rects>
      <tilted>0</tilted></_>
    <_>
      <rects>
        <_>
          11 11 3 1 -1.</_>
        <_>
          12 11 1 1 3.</_></rects>
      <tilted>0</tilted></_>
    <_>
      <rects>
        <_>
          11 11 10 9 -1.</_>
        <_>
          11 14 10 3 3.</_></rects>
      <tilted>0</tilted></_>
    <_>
      <rects>
        <_>
          11 13 1 2 -1.</_>
        <_>
          11 14 1 1 2.</_></rects>
      <tilted>0</tilted></_>
    <_>
      <rects>
        <_>
          11 14 20 2 -1.</_>
        <_>
          11 14 10 1 2.</_>
        <_>
          21 15 10 1 2.</_></rects>
      <tilted>0</tilted></_>
    <_>
      <rects>
        <_>
          11 17 11 2 -1.</_>
        <_>
          11 18 11 1 2.</_></rects>
      <tilted>0</tilted></_>
    <_>
      <rects>
        <_>
          12 0 18 2 -1.</_>
        <_>
          12 0 9 1 2.</_>
        <_>
          21 1 9 1 2.</_></rects>
      <tilted>0</tilted></_>
    <_>
      <rects>
        <_>
          12 1 7 9 -1.</_>
        <_>
          12 4 7 3 3.</_></rects>
      <tilted>0</tilted></_>
    <_>
      <rects>
        <_>
          12 3 3 1 -1.</_>
        <_>
          13 3 1 1 3.</_></rects>
      <tilted>0</tilted></_>
    <_>
      <rects>
        <_>
          12 5 18 4 -1.</_>
        <_>
          12 7 18 2 2.</_></rects>
      <tilted>0</tilted></_>
    <_>
      <rects>
        <_>
          12 7 3 4 -1.</_>
        <_>
          13 7 1 4 3.</_></rects>
      <tilted>0</tilted></_>
    <_>
      <rects>
        <_>
          12 9 3 1 -1.</_>
        <_>
          13 9 1 1 3.</_></rects>
      <tilted>0</tilted></_>
    <_>
      <rects>
        <_>
          12 9 3 3 -1.</_>
        <_>
          13 9 1 3 3.</_></rects>
      <tilted>0</tilted></_>
    <_>
      <rects>
        <_>
          12 11 3 12 -1.</_>
        <_>
          12 17 3 6 2.</_></rects>
      <tilted>0</tilted></_>
    <_>
      <rects>
        <_>
          12 15 12 7 -1.</_>
        <_>
          16 15 4 7 3.</_></rects>
      <tilted>0</tilted></_>
    <_>
      <rects>
        <_>
          12 19 3 5 -1.</_>
        <_>
          13 19 1 5 3.</_></rects>
      <tilted>0</tilted></_>
    <_>
      <rects>
        <_>
          13 0 13 8 -1.</_>
        <_>
          13 4 13 4 2.</_></rects>
      <tilted>0</tilted></_>
    <_>
      <rects>
        <_>
          13 1 6 6 -1.</_>
        <_>
          13 3 6 2 3.</_></rects>
      <tilted>0</tilted></_>
    <_>
      <rects>
        <_>
          13 3 3 1 -1.</_>
        <_>
          14 3 1 1 3.</_></rects>
      <tilted>0</tilted></_>
    <_>
      <rects>
        <_>
          13 5 3 8 -1.</_>
        <_>
          14 5 1 8 3.</_></rects>
      <tilted>0</tilted></_>
    <_>
      <rects>
        <_>
          13 6 2 4 -1.</_>
        <_>
          13 6 1 2 2.</_>
        <_>
          14 8 1 2 2.</_></rects>
      <tilted>0</tilted></_>
    <_>
      <rects>
        <_>
          13 6 12 2 -1.</_>
        <_>
          19 6 6 2 2.</_></rects>
      <tilted>0</tilted></_>
    <_>
      <rects>
        <_>
          13 6 11 8 -1.</_>
        <_>
          13 10 11 4 2.</_></rects>
      <tilted>0</tilted></_>
    <_>
      <rects>
        <_>
          13 7 3 7 -1.</_>
        <_>
          14 7 1 7 3.</_></rects>
      <tilted>0</tilted></_>
    <_>
      <rects>
        <_>
          13 9 3 4 -1.</_>
        <_>
          14 9 1 4 3.</_></rects>
      <tilted>0</tilted></_>
    <_>
      <rects>
        <_>
          13 12 4 3 -1.</_>
        <_>
          13 13 4 1 3.</_></rects>
      <tilted>0</tilted></_>
    <_>
      <rects>
        <_>
          13 21 3 3 -1.</_>
        <_>
          14 21 1 3 3.</_></rects>
      <tilted>0</tilted></_>
    <_>
      <rects>
        <_>
          14 0 3 5 -1.</_>
        <_>
          15 0 1 5 3.</_></rects>
      <tilted>0</tilted></_>
    <_>
      <rects>
        <_>
          14 0 6 6 -1.</_>
        <_>
          16 0 2 6 3.</_></rects>
      <tilted>0</tilted></_>
    <_>
      <rects>
        <_>
          14 0 11 8 -1.</_>
        <_>
          14 4 11 4 2.</_></rects>
      <tilted>0</tilted></_>
    <_>
      <rects>
        <_>
          14 1 14 10 -1.</_>
        <_>
          14 1 7 5 2.</_>
        <_>
          21 6 7 5 2.</_></rects>
      <tilted>0</tilted></_>
    <_>
      <rects>
        <_>
          14 2 3 3 -1.</_>
        <_>
          15 2 1 3 3.</_></rects>
      <tilted>0</tilted></_>
    <_>
      <rects>
        <_>
          14 2 18 20 -1.</_>
        <_>
          20 2 6 20 3.</_></rects>
      <tilted>0</tilted></_>
    <_>
      <rects>
        <_>
          14 3 3 1 -1.</_>
        <_>
          15 3 1 1 3.</_></rects>
      <tilted>0</tilted></_>
    <_>
      <rects>
        <_>
          14 7 18 15 -1.</_>
        <_>
          20 7 6 15 3.</_></rects>
      <tilted>0</tilted></_>
    <_>
      <rects>
        <_>
          14 8 18 5 -1.</_>
        <_>
          20 8 6 5 3.</_></rects>
      <tilted>0</tilted></_>
    <_>
      <rects>
        <_>
          14 11 9 12 -1.</_>
        <_>
          14 17 9 6 2.</_></rects>
      <tilted>0</tilted></_>
    <_>
      <rects>
        <_>
          14 12 18 4 -1.</_>
        <_>
          20 12 6 4 3.</_></rects>
      <tilted>0</tilted></_>
    <_>
      <rects>
        <_>
          14 13 5 4 -1.</_>
        <_>
          14 15 5 2 2.</_></rects>
      <tilted>0</tilted></_>
    <_>
      <rects>
        <_>
          14 17 3 1 -1.</_>
        <_>
          15 17 1 1 3.</_></rects>
      <tilted>0</tilted></_>
    <_>
      <rects>
        <_>
          14 23 3 1 -1.</_>
        <_>
          15 23 1 1 3.</_></rects>
      <tilted>0</tilted></_>
    <_>
      <rects>
        <_>
          15 0 10 16 -1.</_>
        <_>
          20 0 5 16 2.</_></rects>
      <tilted>0</tilted></_>
    <_>
      <rects>
        <_>
          15 2 1 2 -1.</_>
        <_>
          15 3 1 1 2.</_></rects>
      <tilted>0</tilted></_>
    <_>
      <rects>
        <_>
          15 7 2 4 -1.</_>
        <_>
          15 7 1 2 2.</_>
        <_>
          16 9 1 2 2.</_></rects>
      <tilted>0</tilted></_>
    <_>
      <rects>
        <_>
          15 7 3 6 -1.</_>
        <_>
          16 7 1 6 3.</_></rects>
      <tilted>0</tilted></_>
    <_>
      <rects>
        <_>
          15 8 2 4 -1.</_>
        <_>
          16 8 1 4 2.</_></rects>
      <tilted>0</tilted></_>
    <_>
      <rects>
        <_>
          15 9 3 3 -1.</_>
        <_>
          16 9 1 3 3.</_></rects>
      <tilted>0</tilted></_>
    <_>
      <rects>
        <_>
          15 16 3 2 -1.</_>
        <_>
          16 16 1 2 3.</_></rects>
      <tilted>0</tilted></_>
    <_>
      <rects>
        <_>
          15 16 3 3 -1.</_>
        <_>
          16 16 1 3 3.</_></rects>
      <tilted>0</tilted></_>
    <_>
      <rects>
        <_>
          15 17 3 5 -1.</_>
        <_>
          16 17 1 5 3.</_></rects>
      <tilted>0</tilted></_>
    <_>
      <rects>
        <_>
          16 4 10 8 -1.</_>
        <_>
          16 8 10 4 2.</_></rects>
      <tilted>0</tilted></_>
    <_>
      <rects>
        <_>
          16 6 15 2 -1.</_>
        <_>
          21 6 5 2 3.</_></rects>
      <tilted>0</tilted></_>
    <_>
      <rects>
        <_>
          16 9 3 2 -1.</_>
        <_>
          17 9 1 2 3.</_></rects>
      <tilted>0</tilted></_>
    <_>
      <rects>
        <_>
          16 11 2 2 -1.</_>
        <_>
          16 11 1 1 2.</_>
        <_>
          17 12 1 1 2.</_></rects>
      <tilted>0</tilted></_>
    <_>
      <rects>
        <_>
          16 12 3 3 -1.</_>
        <_>
          16 13 3 1 3.</_></rects>
      <tilted>0</tilted></_>
    <_>
      <rects>
        <_>
          16 12 11 3 -1.</_>
        <_>
          16 13 11 1 3.</_></rects>
      <tilted>0</tilted></_>
    <_>
      <rects>
        <_>
          16 16 3 3 -1.</_>
        <_>
          17 16 1 3 3.</_></rects>
      <tilted>0</tilted></_>
    <_>
      <rects>
        <_>
          16 16 7 6 -1.</_>
        <_>
          16 18 7 2 3.</_></rects>
      <tilted>0</tilted></_>
    <_>
      <rects>
        <_>
          17 1 3 6 -1.</_>
        <_>
          17 4 3 3 2.</_></rects>
      <tilted>0</tilted></_>
    <_>
      <rects>
        <_>
          17 4 8 19 -1.</_>
        <_>
          21 4 4 19 2.</_></rects>
      <tilted>0</tilted></_>
    <_>
      <rects>
        <_>
          17 8 2 6 -1.</_>
        <_>
          18 8 1 6 2.</_></rects>
      <tilted>0</tilted></_>
    <_>
      <rects>
        <_>
          17 9 3 3 -1.</_>
        <_>
          18 9 1 3 3.</_></rects>
      <tilted>0</tilted></_>
    <_>
      <rects>
        <_>
          17 10 3 1 -1.</_>
        <_>
          18 10 1 1 3.</_></rects>
      <tilted>0</tilted></_>
    <_>
      <rects>
        <_>
          17 10 3 2 -1.</_>
        <_>
          18 10 1 2 3.</_></rects>
      <tilted>0</tilted></_>
    <_>
      <rects>
        <_>
          17 10 9 9 -1.</_>
        <_>
          17 13 9 3 3.</_></rects>
      <tilted>0</tilted></_>
    <_>
      <rects>
        <_>
          17 19 6 3 -1.</_>
        <_>
          19 19 2 3 3.</_></rects>
      <tilted>0</tilted></_>
    <_>
      <rects>
        <_>
          18 6 2 4 -1.</_>
        <_>
          18 6 1 2 2.</_>
        <_>
          19 8 1 2 2.</_></rects>
      <tilted>0</tilted></_>
    <_>
      <rects>
        <_>
          18 6 6 2 -1.</_>
        <_>
          18 6 3 1 2.</_>
        <_>
          21 7 3 1 2.</_></rects>
      <tilted>0</tilted></_>
    <_>
      <rects>
        <_>
          18 8 2 2 -1.</_>
        <_>
          18 8 1 1 2.</_>
        <_>
          19 9 1 1 2.</_></rects>
      <tilted>0</tilted></_>
    <_>
      <rects>
        <_>
          18 8 5 16 -1.</_>
        <_>
          18 16 5 8 2.</_></rects>
      <tilted>0</tilted></_>
    <_>
      <rects>
        <_>
          18 8 7 12 -1.</_>
        <_>
          18 12 7 4 3.</_></rects>
      <tilted>0</tilted></_>
    <_>
      <rects>
        <_>
          18 10 3 1 -1.</_>
        <_>
          19 10 1 1 3.</_></rects>
      <tilted>0</tilted></_>
    <_>
      <rects>
        <_>
          18 11 1 6 -1.</_>
        <_>
          18 13 1 2 3.</_></rects>
      <tilted>0</tilted></_>
    <_>
      <rects>
        <_>
          18 17 6 2 -1.</_>
        <_>
          18 18 6 1 2.</_></rects>
      <tilted>0</tilted></_>
    <_>
      <rects>
        <_>
          18 18 3 4 -1.</_>
        <_>
          19 18 1 4 3.</_></rects>
      <tilted>0</tilted></_>
    <_>
      <rects>
        <_>
          18 19 3 3 -1.</_>
        <_>
          19 19 1 3 3.</_></rects>
      <tilted>0</tilted></_>
    <_>
      <rects>
        <_>
          19 0 2 4 -1.</_>
        <_>
          20 0 1 4 2.</_></rects>
      <tilted>0</tilted></_>
    <_>
      <rects>
        <_>
          19 7 3 4 -1.</_>
        <_>
          20 7 1 4 3.</_></rects>
      <tilted>0</tilted></_>
    <_>
      <rects>
        <_>
          19 11 3 1 -1.</_>
        <_>
          20 11 1 1 3.</_></rects>
      <tilted>0</tilted></_>
    <_>
      <rects>
        <_>
          19 12 5 6 -1.</_>
        <_>
          19 14 5 2 3.</_></rects>
      <tilted>0</tilted></_>
    <_>
      <rects>
        <_>
          19 18 3 6 -1.</_>
        <_>
          20 18 1 6 3.</_></rects>
      <tilted>0</tilted></_>
    <_>
      <rects>
        <_>
          20 2 6 16 -1.</_>
        <_>
          23 2 3 16 2.</_></rects>
      <tilted>0</tilted></_>
    <_>
      <rects>
        <_>
          20 4 12 6 -1.</_>
        <_>
          26 4 6 6 2.</_></rects>
      <tilted>0</tilted></_>
    <_>
      <rects>
        <_>
          20 5 3 9 -1.</_>
        <_>
          21 5 1 9 3.</_></rects>
      <tilted>0</tilted></_>
    <_>
      <rects>
        <_>
          20 7 3 4 -1.</_>
        <_>
          21 7 1 4 3.</_></rects>
      <tilted>0</tilted></_>
    <_>
      <rects>
        <_>
          20 8 2 4 -1.</_>
        <_>
          20 8 1 2 2.</_>
        <_>
          21 10 1 2 2.</_></rects>
      <tilted>0</tilted></_>
    <_>
      <rects>
        <_>
          21 0 2 1 -1.</_>
        <_>
          22 0 1 1 2.</_></rects>
      <tilted>0</tilted></_>
    <_>
      <rects>
        <_>
          21 3 3 3 -1.</_>
        <_>
          21 4 3 1 3.</_></rects>
      <tilted>0</tilted></_>
    <_>
      <rects>
        <_>
          21 7 6 7 -1.</_>
        <_>
          24 7 3 7 2.</_></rects>
      <tilted>0</tilted></_>
    <_>
      <rects>
        <_>
          21 9 3 1 -1.</_>
        <_>
          22 9 1 1 3.</_></rects>
      <tilted>0</tilted></_>
    <_>
      <rects>
        <_>
          21 10 3 1 -1.</_>
        <_>
          22 10 1 1 3.</_></rects>
      <tilted>0</tilted></_>
    <_>
      <rects>
        <_>
          22 4 3 3 -1.</_>
        <_>
          22 5 3 1 3.</_></rects>
      <tilted>0</tilted></_>
    <_>
      <rects>
        <_>
          22 4 10 6 -1.</_>
        <_>
          22 4 5 3 2.</_>
        <_>
          27 7 5 3 2.</_></rects>
      <tilted>0</tilted></_>
    <_>
      <rects>
        <_>
          22 6 10 14 -1.</_>
        <_>
          27 6 5 14 2.</_></rects>
      <tilted>0</tilted></_>
    <_>
      <rects>
        <_>
          22 9 3 1 -1.</_>
        <_>
          23 9 1 1 3.</_></rects>
      <tilted>0</tilted></_>
    <_>
      <rects>
        <_>
          22 9 2 2 -1.</_>
        <_>
          22 9 1 1 2.</_>
        <_>
          23 10 1 1 2.</_></rects>
      <tilted>0</tilted></_>
    <_>
      <rects>
        <_>
          22 11 3 1 -1.</_>
        <_>
          23 11 1 1 3.</_></rects>
      <tilted>0</tilted></_>
    <_>
      <rects>
        <_>
          22 21 1 2 -1.</_>
        <_>
          22 22 1 1 2.</_></rects>
      <tilted>0</tilted></_>
    <_>
      <rects>
        <_>
          23 8 8 4 -1.</_>
        <_>
          27 8 4 4 2.</_></rects>
      <tilted>0</tilted></_>
    <_>
      <rects>
        <_>
          24 4 8 5 -1.</_>
        <_>
          28 4 4 5 2.</_></rects>
      <tilted>0</tilted></_>
    <_>
      <rects>
        <_>
          24 4 8 12 -1.</_>
        <_>
          28 4 4 12 2.</_></rects>
      <tilted>0</tilted></_>
    <_>
      <rects>
        <_>
          24 8 3 6 -1.</_>
        <_>
          25 8 1 6 3.</_></rects>
      <tilted>0</tilted></_>
    <_>
      <rects>
        <_>
          24 10 3 2 -1.</_>
        <_>
          25 10 1 2 3.</_></rects>
      <tilted>0</tilted></_>
    <_>
      <rects>
        <_>
          25 0 3 3 -1.</_>
        <_>
          26 0 1 3 3.</_></rects>
      <tilted>0</tilted></_>
    <_>
      <rects>
        <_>
          25 2 2 22 -1.</_>
        <_>
          25 13 2 11 2.</_></rects>
      <tilted>0</tilted></_>
    <_>
      <rects>
        <_>
          25 22 3 2 -1.</_>
        <_>
          25 23 3 1 2.</_></rects>
      <tilted>0</tilted></_>
    <_>
      <rects>
        <_>
          26 4 6 10 -1.</_>
        <_>
          29 4 3 10 2.</_></rects>
      <tilted>0</tilted></_>
    <_>
      <rects>
        <_>
          26 12 6 1 -1.</_>
        <_>
          29 12 3 1 2.</_></rects>
      <tilted>0</tilted></_>
    <_>
      <rects>
        <_>
          27 0 2 6 -1.</_>
        <_>
          27 2 2 2 3.</_></rects>
      <tilted>0</tilted></_>
    <_>
      <rects>
        <_>
          27 7 3 4 -1.</_>
        <_>
          28 7 1 4 3.</_></rects>
      <tilted>0</tilted></_>
    <_>
      <rects>
        <_>
          28 6 2 13 -1.</_>
        <_>
          29 6 1 13 2.</_></rects>
      <tilted>0</tilted></_>
    <_>
      <rects>
        <_>
          29 7 3 16 -1.</_>
        <_>
          30 7 1 16 3.</_></rects>
      <tilted>0</tilted></_>
    <_>
      <rects>
        <_>
          29 10 1 3 -1.</_>
        <_>
          29 11 1 1 3.</_></rects>
      <tilted>0</tilted></_>
    <_>
      <rects>
        <_>
          30 7 2 2 -1.</_>
        <_>
          30 7 1 1 2.</_>
        <_>
          31 8 1 1 2.</_></rects>
      <tilted>0</tilted></_>
    <_>
      <rects>
        <_>
          30 9 2 15 -1.</_>
        <_>
          31 9 1 15 2.</_></rects>
      <tilted>0</tilted></_>
    <_>
      <rects>
        <_>
          30 21 2 2 -1.</_>
        <_>
          31 21 1 2 2.</_></rects>
      <tilted>0</tilted></_>
    <_>
      <rects>
        <_>
          31 7 1 4 -1.</_>
        <_>
          31 9 1 2 2.</_></rects>
      <tilted>0</tilted></_></features></cascade>
</opencv_storage>
